FANN_FLO_2.1
num_layers=3
learning_rate=0.700000
connection_rate=1.000000
network_type=0
learning_momentum=0.000000
training_algorithm=2
train_error_function=1
train_stop_function=0
cascade_output_change_fraction=0.010000
quickprop_decay=-0.000100
quickprop_mu=1.750000
rprop_increase_factor=1.200000
rprop_decrease_factor=0.500000
rprop_delta_min=0.000000
rprop_delta_max=50.000000
rprop_delta_zero=0.100000
cascade_output_stagnation_epochs=12
cascade_candidate_change_fraction=0.010000
cascade_candidate_stagnation_epochs=12
cascade_max_out_epochs=150
cascade_min_out_epochs=50
cascade_max_cand_epochs=150
cascade_min_cand_epochs=50
cascade_num_candidate_groups=2
bit_fail_limit=3.49999999999999980000e-001
cascade_candidate_limit=1.00000000000000000000e+003
cascade_weight_multiplier=4.00000000000000020000e-001
cascade_activation_functions_count=10
cascade_activation_functions=3 5 7 8 10 11 14 15 16 17 
cascade_activation_steepnesses_count=4
cascade_activation_steepnesses=2.50000000000000000000e-001 5.00000000000000000000e-001 7.50000000000000000000e-001 1.00000000000000000000e+000 
layer_sizes=5 4 2 
scale_included=0
neurons (num_inputs, activation_function, activation_steepness)=(0, 0, 0.00000000000000000000e+000) (0, 0, 0.00000000000000000000e+000) (0, 0, 0.00000000000000000000e+000) (0, 0, 0.00000000000000000000e+000) (0, 0, 0.00000000000000000000e+000) (5, 5, 5.00000000000000000000e-001) (5, 5, 5.00000000000000000000e-001) (5, 5, 5.00000000000000000000e-001) (0, 5, 0.00000000000000000000e+000) (4, 5, 5.00000000000000000000e-001) (0, 5, 0.00000000000000000000e+000) 
connections (connected_to_neuron, weight)=(0, 5.90814985810452890000e-001) (1, 8.34393675694400090000e-002) (2, 1.47789825697448450000e-001) (3, 5.46136436523192090000e-002) (4, 4.40422229074344180000e-002) (0, -1.63277088221211310000e-001) (1, -1.34730887778243270000e-001) (2, -1.55049877603067630000e-001) (3, -2.15386165455013870000e-002) (4, -4.50316622393769280000e-002) (0, -4.57657837014432480000e-002) (1, -2.09149866418600450000e-001) (2, 1.05706365927049740000e-001) (3, 8.50669417728135700000e-002) (4, 2.51354138699272840000e-003) (5, 4.71675687111429710000e-002) (6, 1.18075803975252190000e-001) (7, -3.35924401796024730000e-002) (8, 1.23105227922991370000e+000) 
