FANN_FLO_2.1
num_layers=4
learning_rate=0.700000
connection_rate=1.000000
network_type=0
learning_momentum=0.000000
training_algorithm=2
train_error_function=1
train_stop_function=0
cascade_output_change_fraction=0.010000
quickprop_decay=-0.000100
quickprop_mu=1.750000
rprop_increase_factor=1.200000
rprop_decrease_factor=0.500000
rprop_delta_min=0.000000
rprop_delta_max=50.000000
rprop_delta_zero=0.100000
cascade_output_stagnation_epochs=12
cascade_candidate_change_fraction=0.010000
cascade_candidate_stagnation_epochs=12
cascade_max_out_epochs=150
cascade_min_out_epochs=50
cascade_max_cand_epochs=150
cascade_min_cand_epochs=50
cascade_num_candidate_groups=2
bit_fail_limit=3.49999999999999980000e-001
cascade_candidate_limit=1.00000000000000000000e+003
cascade_weight_multiplier=4.00000000000000020000e-001
cascade_activation_functions_count=10
cascade_activation_functions=3 5 7 8 10 11 14 15 16 17 
cascade_activation_steepnesses_count=4
cascade_activation_steepnesses=2.50000000000000000000e-001 5.00000000000000000000e-001 7.50000000000000000000e-001 1.00000000000000000000e+000 
layer_sizes=5 4 4 2 
scale_included=0
neurons (num_inputs, activation_function, activation_steepness)=(0, 0, 0.00000000000000000000e+000) (0, 0, 0.00000000000000000000e+000) (0, 0, 0.00000000000000000000e+000) (0, 0, 0.00000000000000000000e+000) (0, 0, 0.00000000000000000000e+000) (5, 5, 5.00000000000000000000e-001) (5, 5, 5.00000000000000000000e-001) (5, 5, 5.00000000000000000000e-001) (0, 5, 0.00000000000000000000e+000) (4, 5, 5.00000000000000000000e-001) (4, 5, 5.00000000000000000000e-001) (4, 5, 5.00000000000000000000e-001) (0, 5, 0.00000000000000000000e+000) (4, 5, 5.00000000000000000000e-001) (0, 5, 0.00000000000000000000e+000) 
connections (connected_to_neuron, weight)=(0, 1.10987777878825160000e+304) (1, 1.10987777878825160000e+304) (2, -8.63643429488361180000e-002) (3, -7.74670962293816790000e-002) (4, -4.15947557605621520000e-002) (0, -1.39546685778265090000e+304) (1, -1.39546685778265090000e+304) (2, -6.94369848752721810000e-003) (3, -3.89798369659638540000e-002) (4, 2.95000117388494990000e-002) (0, -4.76638623519109620000e+304) (1, -4.76638623519109620000e+304) (2, 2.45708178157955090000e-002) (3, 2.53000183470571610000e-002) (4, 4.19650862033675780000e-002) (5, -7.70954187170692640000e-002) (6, 3.62614361174838080000e-002) (7, 1.35408407867250500000e-001) (8, 4.25834226082121190000e-003) (5, -4.28406735614957690000e-002) (6, 7.18604237523835510000e-002) (7, 1.54870704527748290000e-001) (8, -1.04126945626562320000e-002) (5, -3.65776850617410970000e-002) (6, 2.87193333067192610000e-002) (7, 8.20977052712922590000e-002) (8, 4.92743669988041500000e-002) (9, -1.36775163206145080000e-001) (10, -1.53189811669332900000e-001) (11, -5.08478266507308220000e-002) (12, 1.02029687272053190000e+000) 
