FANN_FLO_2.1
num_layers=3
learning_rate=0.700000
connection_rate=1.000000
network_type=0
learning_momentum=0.000000
training_algorithm=2
train_error_function=1
train_stop_function=0
cascade_output_change_fraction=0.010000
quickprop_decay=-0.000100
quickprop_mu=1.750000
rprop_increase_factor=1.200000
rprop_decrease_factor=0.500000
rprop_delta_min=0.000000
rprop_delta_max=50.000000
rprop_delta_zero=0.100000
cascade_output_stagnation_epochs=12
cascade_candidate_change_fraction=0.010000
cascade_candidate_stagnation_epochs=12
cascade_max_out_epochs=150
cascade_min_out_epochs=50
cascade_max_cand_epochs=150
cascade_min_cand_epochs=50
cascade_num_candidate_groups=2
bit_fail_limit=3.49999999999999980000e-001
cascade_candidate_limit=1.00000000000000000000e+003
cascade_weight_multiplier=4.00000000000000020000e-001
cascade_activation_functions_count=10
cascade_activation_functions=3 5 7 8 10 11 14 15 16 17 
cascade_activation_steepnesses_count=4
cascade_activation_steepnesses=2.50000000000000000000e-001 5.00000000000000000000e-001 7.50000000000000000000e-001 1.00000000000000000000e+000 
layer_sizes=5 4 2 
scale_included=0
neurons (num_inputs, activation_function, activation_steepness)=(0, 0, 0.00000000000000000000e+000) (0, 0, 0.00000000000000000000e+000) (0, 0, 0.00000000000000000000e+000) (0, 0, 0.00000000000000000000e+000) (0, 0, 0.00000000000000000000e+000) (5, 5, 5.00000000000000000000e-001) (5, 5, 5.00000000000000000000e-001) (5, 5, 5.00000000000000000000e-001) (0, 5, 0.00000000000000000000e+000) (4, 5, 5.00000000000000000000e-001) (0, 5, 0.00000000000000000000e+000) 
connections (connected_to_neuron, weight)=(0, -2.50610355296885250000e-002) (1, 4.49890143422635450000e-002) (2, -6.01623544121139280000e-002) (3, -3.67614751571636590000e-002) (4, 3.78417974388867150000e-004) (0, -2.65319828172323470000e-002) (1, 8.10363781606611160000e-002) (2, -6.33056650058279050000e-002) (3, -4.20288092200280520000e-002) (4, 5.93627938533245470000e-002) (0, -3.04321293597240580000e-002) (1, -3.43444829336476690000e-002) (2, -1.21704103376032440000e-002) (3, 1.84020998835876530000e-002) (4, -4.98596198835912220000e-002) (5, 4.02832037252665030000e-002) (6, -5.34912117345811570000e-002) (7, 9.97375503143302920000e-002) (8, -8.12255871478555490000e-002) 
