FANN_FLO_2.1
num_layers=3
learning_rate=0.700000
connection_rate=1.000000
network_type=0
learning_momentum=0.000000
training_algorithm=2
train_error_function=1
train_stop_function=0
cascade_output_change_fraction=0.010000
quickprop_decay=-0.000100
quickprop_mu=1.750000
rprop_increase_factor=1.200000
rprop_decrease_factor=0.500000
rprop_delta_min=0.000000
rprop_delta_max=50.000000
rprop_delta_zero=0.100000
cascade_output_stagnation_epochs=12
cascade_candidate_change_fraction=0.010000
cascade_candidate_stagnation_epochs=12
cascade_max_out_epochs=150
cascade_min_out_epochs=50
cascade_max_cand_epochs=150
cascade_min_cand_epochs=50
cascade_num_candidate_groups=2
bit_fail_limit=3.49999999999999980000e-001
cascade_candidate_limit=1.00000000000000000000e+003
cascade_weight_multiplier=4.00000000000000020000e-001
cascade_activation_functions_count=10
cascade_activation_functions=3 5 7 8 10 11 14 15 16 17 
cascade_activation_steepnesses_count=4
cascade_activation_steepnesses=2.50000000000000000000e-001 5.00000000000000000000e-001 7.50000000000000000000e-001 1.00000000000000000000e+000 
layer_sizes=5 4 2 
scale_included=0
neurons (num_inputs, activation_function, activation_steepness)=(0, 0, 0.00000000000000000000e+000) (0, 0, 0.00000000000000000000e+000) (0, 0, 0.00000000000000000000e+000) (0, 0, 0.00000000000000000000e+000) (0, 0, 0.00000000000000000000e+000) (5, 5, 5.00000000000000000000e-001) (5, 5, 5.00000000000000000000e-001) (5, 5, 5.00000000000000000000e-001) (0, 5, 0.00000000000000000000e+000) (4, 5, 5.00000000000000000000e-001) (0, 5, 0.00000000000000000000e+000) 
connections (connected_to_neuron, weight)=(0, 3.90808111292244580000e-002) (1, -9.97497573457621910000e-002) (2, 8.46313489173553530000e-002) (3, -6.36901864959327210000e-002) (4, -5.87219247031498530000e-002) (0, 2.28210452619350690000e-002) (1, 5.94787606519275870000e-002) (2, 9.38720717113028510000e-002) (3, 9.30175795110699260000e-002) (4, 8.22387707567031610000e-002) (0, -2.63366703143219640000e-002) (1, -3.49914555995383130000e-002) (2, -3.45092778579783040000e-002) (3, 2.63244632828900650000e-002) (4, -5.55419930151401790000e-004) (5, 8.57849133876698030000e-002) (6, 9.20043959022223130000e-002) (7, -6.93298350174700320000e-002) (8, -1.64062502444721760000e-002) 
