FANN_FLO_2.1
num_layers=4
learning_rate=0.700000
connection_rate=1.000000
network_type=0
learning_momentum=0.000000
training_algorithm=2
train_error_function=1
train_stop_function=0
cascade_output_change_fraction=0.010000
quickprop_decay=-0.000100
quickprop_mu=1.750000
rprop_increase_factor=1.200000
rprop_decrease_factor=0.500000
rprop_delta_min=0.000000
rprop_delta_max=50.000000
rprop_delta_zero=0.100000
cascade_output_stagnation_epochs=12
cascade_candidate_change_fraction=0.010000
cascade_candidate_stagnation_epochs=12
cascade_max_out_epochs=150
cascade_min_out_epochs=50
cascade_max_cand_epochs=150
cascade_min_cand_epochs=50
cascade_num_candidate_groups=2
bit_fail_limit=3.49999999999999980000e-001
cascade_candidate_limit=1.00000000000000000000e+003
cascade_weight_multiplier=4.00000000000000020000e-001
cascade_activation_functions_count=10
cascade_activation_functions=3 5 7 8 10 11 14 15 16 17 
cascade_activation_steepnesses_count=4
cascade_activation_steepnesses=2.50000000000000000000e-001 5.00000000000000000000e-001 7.50000000000000000000e-001 1.00000000000000000000e+000 
layer_sizes=5 5 5 2 
scale_included=0
neurons (num_inputs, activation_function, activation_steepness)=(0, 0, 0.00000000000000000000e+000) (0, 0, 0.00000000000000000000e+000) (0, 0, 0.00000000000000000000e+000) (0, 0, 0.00000000000000000000e+000) (0, 0, 0.00000000000000000000e+000) (5, 5, 5.00000000000000000000e-001) (5, 5, 5.00000000000000000000e-001) (5, 5, 5.00000000000000000000e-001) (5, 5, 5.00000000000000000000e-001) (0, 5, 0.00000000000000000000e+000) (5, 5, 5.00000000000000000000e-001) (5, 5, 5.00000000000000000000e-001) (5, 5, 5.00000000000000000000e-001) (5, 5, 5.00000000000000000000e-001) (0, 5, 0.00000000000000000000e+000) (5, 5, 5.00000000000000000000e-001) (0, 5, 0.00000000000000000000e+000) 
connections (connected_to_neuron, weight)=(0, -9.20482437500456440000e+304) (1, -9.20482437500456440000e+304) (2, -4.40652530270417130000e-003) (3, -3.17456017691390630000e-002) (4, -1.77842756184004410000e-002) (0, -2.23954775883677990000e+305) (1, -2.23954775883677990000e+305) (2, 8.34778208404570590000e-002) (3, -3.36423025924793840000e-002) (4, -8.58633247903059780000e-002) (0, 1.34004901584761320000e+305) (1, 1.34004901584761320000e+305) (2, -1.18272964005071510000e-002) (3, -1.38722635135913320000e-001) (4, 6.12348584406905360000e-002) (0, -2.35641895967460590000e+305) (1, -2.35641895967460590000e+305) (2, -6.15083879397161570000e-002) (3, 2.07845778308928770000e-002) (4, 6.90210252886551240000e-004) (5, 6.43251696271398420000e-002) (6, -6.75009615785461120000e-002) (7, -6.46486559600851630000e-002) (8, -3.14230801815693770000e-002) (9, 3.00497891454805860000e-002) (5, 4.62652293039517160000e-003) (6, -2.25443957442894720000e-002) (7, -9.49102495600696350000e-003) (8, 3.49812398785342290000e-002) (9, 2.65544055696683160000e-002) (5, -1.46973223078548710000e-002) (6, 1.58122141429424750000e-002) (7, -1.10412034663040450000e-002) (8, -5.63518522949873450000e-004) (9, 1.15925714216706090000e-002) (5, 1.84133864252724040000e-002) (6, 7.27524841355896710000e-002) (7, 7.48383075750118370000e-003) (8, -6.61513265279883990000e-002) (9, 1.75307203347348990000e-002) (10, 2.45493012294047240000e-009) (11, 5.62624143847977400000e-009) (12, -2.20711180102239190000e-009) (13, 3.13756444066623240000e-009) (14, 1.28730903388406800000e+000) 
